lstm/lstm_cell/kernel:0
(1, 320)
[[ 0.08959009 -0.13563897  0.09998486 -0.16564696  0.24349718  0.15319906
  -0.0589594   0.14163528  0.0135586  -0.00805432 -0.01527682  0.03713441
  -0.12733693 -0.18147224 -0.00814839  0.06196831 -0.0812927  -0.07963093
   0.11669833 -0.02333322 -0.00154276 -0.00958829  0.15252498  0.04896748
   0.11517959 -0.09912533  0.15387976  0.0483329  -0.10230476  0.15578282
   0.09340096 -0.0558356  -0.00144859 -0.15942964  0.07014403 -0.05354829
  -0.08184779  0.02593163 -0.1191261  -0.02541606  0.13442916 -0.01887312
  -0.01261139  0.01334704  0.15065289 -0.12131639 -0.18108664  0.07645648
   0.00406319  0.09115992 -0.14550295  0.02114262 -0.21249028 -0.00131459
   0.2702162  -0.14553986 -0.26195556  0.12619267  0.04809106 -0.03795492
   0.097626    0.11846035  0.13177137 -0.26205865 -0.07281969  0.11492831
  -0.02018239  0.01802915 -0.01750566 -0.05141984  0.09206565  0.17750579
   0.09822921  0.1771475   0.04315114 -0.11958802 -0.09747091 -0.10766058
  -0.00859619 -0.21895254 -0.0110335  -0.00113718  0.10603641 -0.04403219
   0.06872671 -0.0079069   0.05833549  0.01238645  0.02827866  0.25529197
  -0.03277199  0.10209046 -0.04505053 -0.03067468  0.03848377  0.10300556
  -0.16655715  0.03450764 -0.08944594 -0.18545263 -0.14541957  0.0438571
   0.03544415  0.14264539  0.01469858 -0.05560642 -0.14776352  0.00100613
  -0.05121062  0.03991317  0.03984264 -0.06928396  0.12856492 -0.10867079
   0.01195222  0.03813605  0.09426603 -0.07736963 -0.08641949 -0.08842581
   0.07051048  0.02687807  0.10482422 -0.17667367  0.03897663 -0.03367261
  -0.04921104  0.07908472 -0.12973568  0.04056169 -0.03174737  0.09152919
  -0.16206317 -0.12800089  0.13158359  0.0654047  -0.1159915  -0.08993883
   0.04721421  0.05243651 -0.00189968 -0.06744756  0.01796444 -0.14457403
  -0.20209943 -0.03224852  0.08483897 -0.09390356 -0.04217103 -0.0846115
   0.07470788  0.09258033 -0.01367679  0.17674133 -0.11874887 -0.03877874
   0.01307692  0.04470139  0.03332213 -0.19260621 -0.12242724 -0.05019027
   0.08824478  0.00218112 -0.16313593  0.12353724 -0.03406379 -0.06054624
   0.03413495  0.15814182 -0.08982    -0.06625097 -0.0060063   0.06400717
   0.02081488  0.14381157  0.12369135 -0.02663589  0.09952249  0.14714058
   0.03519886  0.105382    0.1376149  -0.13823406  0.14360645 -0.05552103
  -0.11033956 -0.05283108  0.12892944 -0.1313397  -0.05347767 -0.01725944
   0.06309734  0.01335685  0.18145263 -0.05834127 -0.05224616  0.09541468
   0.08294618  0.06765284  0.05566465  0.07286841  0.09688204  0.1058396
  -0.11384888  0.03482883  0.07098545  0.14773245 -0.03362147  0.09926367
  -0.0797194  -0.0031376  -0.03566064  0.1185031  -0.11083766  0.0391086
  -0.02230959 -0.07879675 -0.10740556  0.09583806  0.17001733 -0.17086846
  -0.13980958  0.03760089  0.05262712 -0.13894863  0.04622415  0.11224271
  -0.16871972 -0.06172335 -0.05356362 -0.08343072  0.04051177 -0.19421023
  -0.09152408 -0.01501303 -0.10620415  0.12934588 -0.15782191 -0.01649472
   0.06598338 -0.1223144   0.04795682 -0.10912861  0.24756572  0.13244471
  -0.02363412  0.06136081  0.01140048  0.22511429  0.12549971 -0.06467991
  -0.08525995  0.01607995 -0.14688139 -0.08539238 -0.12575433 -0.0317326
   0.17752019 -0.23810163 -0.14561227 -0.08809422  0.064922    0.1052658
   0.16938195 -0.05501043  0.08224124  0.03707564 -0.05913519  0.13029894
  -0.08556453 -0.04850503  0.04853598  0.04234887  0.31088227  0.0742917
   0.07930181 -0.15221372 -0.15725972 -0.05845527  0.23445511 -0.01660769
   0.06309737  0.02794021  0.25737214 -0.27582535 -0.1693705   0.07024314
  -0.10382099  0.11068399 -0.05868321 -0.10864849 -0.16333126 -0.03476303
   0.23705027 -0.0464913  -0.11312094 -0.11538011  0.12186608 -0.0897575
   0.04216911  0.2431715   0.13166681 -0.30410182 -0.24102439 -0.18136582
  -0.05542994 -0.17086557 -0.04416373  0.05938548 -0.02902243 -0.0482971
   0.01169093  0.2082005  -0.01249753 -0.14167824 -0.06192659  0.06823809
   0.09639475 -0.15454794]]
lstm/lstm_cell/recurrent_kernel:0
(80, 320)
[[-0.10934805  0.05965283  0.01009814 ...  0.03471288 -0.01523002
  -0.03174516]
 [-0.06305281 -0.02115193  0.08320557 ...  0.04821668  0.08989578
  -0.02864306]
 [-0.06459633 -0.06018961 -0.07512157 ...  0.03175491  0.09135232
  -0.09593479]
 ...
 [ 0.06547093 -0.22787637  0.07270244 ... -0.0413601   0.07599977
  -0.0419296 ]
 [-0.00125462 -0.08421966 -0.03309692 ...  0.19390188 -0.07702074
  -0.00951183]
 [ 0.02367665  0.15888098  0.11186035 ... -0.0752491  -0.19903702
   0.04498599]]
lstm/lstm_cell/bias:0
(320,)
[ 1.87937333e-03 -1.27291530e-02  7.11154845e-03  4.54512099e-03
  2.49875374e-02  1.43527437e-03  8.93448852e-03 -2.33461615e-03
 -1.41290650e-02  6.03027530e-02  2.11561471e-02 -3.18911602e-03
 -3.40769887e-02 -4.31360877e-06  2.01661531e-02  5.18406592e-02
 -5.68931550e-03 -1.74167147e-03 -3.83526087e-03  2.44099144e-02
 -1.55502651e-02 -7.09315948e-03 -2.04088422e-03  5.78634324e-04
  6.48141745e-03 -8.00559949e-03 -2.14086380e-03  1.41739678e-02
 -1.76733697e-03  3.48665304e-02  9.31011222e-04  1.05837081e-02
  1.45760663e-02 -2.45937495e-03  4.23443913e-02 -3.33277211e-02
 -1.77741591e-02  6.07183063e-03  2.48465221e-03  8.37462023e-03
 -6.73585385e-03 -8.78235046e-03  7.63473380e-03 -1.99517608e-02
  2.88168602e-02  3.58377434e-02  2.64149928e-03  1.05350921e-02
 -2.32882947e-02 -6.92227297e-03 -6.04015170e-03  9.47761536e-03
  1.08910225e-01 -2.00146460e-03  1.99932549e-02  7.56552629e-03
 -2.99547724e-02 -1.64262168e-02 -5.27100917e-03 -1.01729902e-02
  9.22936127e-02  9.66268033e-02  1.96955004e-03  3.96435559e-02
  2.73885131e-02  1.87505037e-02 -1.15259807e-03 -2.95448583e-03
  3.25026289e-02 -6.55013602e-03 -4.17288626e-03  2.49559265e-02
 -1.62696950e-02  7.78121874e-02  4.61235316e-03  1.48175564e-02
  6.02953248e-02 -8.36226344e-03  4.49598357e-02 -7.11872205e-02
  9.92813766e-01  9.87091959e-01  1.01156938e+00  1.01249683e+00
  9.81670201e-01  1.00363374e+00  1.01063812e+00  9.91930366e-01
  9.94623601e-01  1.02709246e+00  1.00377512e+00  9.99245226e-01
  9.72675145e-01  1.00418890e+00  9.97311234e-01  9.91751552e-01
  9.95005190e-01  1.01335526e+00  9.92666304e-01  1.00076222e+00
  1.00105751e+00  9.67069566e-01  9.97796774e-01  9.99596417e-01
  9.91153777e-01  9.94291902e-01  9.95267749e-01  1.02502573e+00
  1.00392604e+00  9.80100036e-01  1.00834310e+00  1.00898135e+00
  1.00417769e+00  1.00310087e+00  8.91488850e-01  9.62808490e-01
  9.53196883e-01  1.01265562e+00  9.58350837e-01  1.01560569e+00
  1.00895894e+00  9.83796060e-01  9.79802072e-01  9.88440275e-01
  9.95814621e-01  1.04345548e+00  9.85337377e-01  9.96623814e-01
  9.67236817e-01  9.35446501e-01  9.91246939e-01  1.01047373e+00
  1.12654495e+00  9.85670447e-01  1.01153612e+00  9.77003813e-01
  9.81290162e-01  9.87164319e-01  9.92710114e-01  9.92325127e-01
  1.03737664e+00  1.02354741e+00  1.00195348e+00  1.08037126e+00
  1.04968917e+00  1.02250659e+00  9.83815134e-01  1.00980520e+00
  1.00282729e+00  9.85482812e-01  9.87129629e-01  9.86989617e-01
  9.86001313e-01  9.88952160e-01  9.78208601e-01  1.02414310e+00
  9.98413920e-01  9.64439034e-01  9.68986452e-01  9.32709217e-01
  4.24068645e-02 -1.89498123e-02  2.70841829e-02 -4.77918684e-02
  9.19782184e-03  6.19749352e-03  4.84173298e-02  3.89541476e-03
  8.20525084e-03 -5.80855943e-02  5.23563847e-02 -1.69572385e-03
 -2.12124884e-02 -2.79108826e-02  7.69337788e-02  3.68021801e-03
  5.28326258e-03  1.24597475e-02 -1.15895951e-02 -1.66996662e-03
  7.45413313e-03 -2.64121778e-02 -4.12058197e-02  3.44767794e-02
 -2.73375325e-02 -2.67334338e-02 -4.17030696e-03  2.33720196e-03
  1.10141952e-02  4.87355962e-02 -1.16378032e-02  3.43034081e-02
 -4.92173694e-02 -2.30686106e-02 -3.33266929e-02  3.55535224e-02
 -4.96054720e-03  2.05998588e-02  7.37686176e-03  1.30002983e-02
 -9.82048083e-03  4.88993339e-03 -4.39880639e-02 -3.54045909e-03
  4.37370054e-02 -5.53329103e-02 -2.80955750e-02 -4.22028527e-02
  3.56978998e-02 -1.57986134e-02 -4.74304333e-02 -2.65909228e-02
 -6.74283579e-02 -1.53217968e-02  4.45030928e-02 -2.74081137e-02
 -2.12183176e-03  1.00071952e-02  2.80494746e-02  6.60295878e-03
 -8.38166326e-02  5.35413213e-02  3.62899946e-03 -8.28873813e-02
 -1.90549586e-02 -1.69120152e-02 -3.89407873e-02  1.34421000e-02
  4.49416675e-02  4.12764736e-02  8.48465040e-03  4.51154336e-02
  4.72010765e-03  5.57785742e-02 -3.44020203e-02 -4.16985080e-02
  6.49100840e-02  1.21769961e-04  5.36116958e-02  2.69496366e-02
  1.63080916e-03 -3.27433995e-03  5.40363602e-03  2.68195639e-03
  1.54870432e-02  4.79419221e-04  9.75916907e-03 -2.93005200e-04
 -1.55102722e-02  5.00564240e-02  2.14614514e-02 -2.58147111e-03
 -3.48172188e-02  1.62159768e-03  1.72558501e-02  5.80260679e-02
 -7.24531710e-03  9.27437562e-03 -4.90190415e-03  1.46066677e-02
 -1.75137855e-02 -3.75659717e-03 -4.55879839e-03 -2.01356877e-03
  4.31987969e-03 -7.84023385e-03 -2.37375934e-05  2.87880073e-03
 -3.49279749e-03  3.30234468e-02 -2.29065423e-03  7.37203471e-03
  1.12237167e-02  7.44150078e-04  1.80620439e-02 -3.20981182e-02
 -1.95047446e-02  7.61818199e-04  1.23911910e-02  2.36657704e-03
 -4.34063515e-03 -7.91202299e-03  5.23997610e-03 -2.41487920e-02
  2.23839134e-02  2.25050244e-02  8.46565585e-04  1.00366566e-02
 -2.21312139e-02 -6.54980261e-03 -6.65586255e-03  6.81014918e-03
  1.02546014e-01 -1.16528582e-03  1.91779658e-02  6.35787705e-03
 -2.93665268e-02 -1.52258156e-02 -5.82945999e-03 -1.12927156e-02
  8.37252438e-02  9.73051265e-02  4.28111613e-04  1.53712546e-02
  1.23766344e-02  3.67126986e-03 -1.13845454e-03 -9.17261932e-03
  3.17198895e-02 -6.94205426e-03 -1.39168021e-03  2.97934804e-02
 -1.69244446e-02  7.14167133e-02  5.05328132e-03  1.25283664e-02
  6.01310022e-02 -2.52869516e-03  4.97856773e-02 -7.11295679e-02]
lstm_1/lstm_cell_1/kernel:0
(80, 400)
[[-0.20318973 -0.07025649  0.20090953 ...  0.12122668 -0.17223947
   0.08958159]
 [-0.03865284  0.13260365  0.00215304 ...  0.12340479  0.16395044
   0.12243997]
 [-0.03765451 -0.10202488 -0.11991293 ... -0.12295974  0.15004252
  -0.07431336]
 ...
 [-0.028375   -0.05587066 -0.00651805 ... -0.03309151  0.20203744
   0.11989801]
 [-0.18447986 -0.16715927  0.14909273 ...  0.25217664 -0.15806963
  -0.00682317]
 [-0.1796972  -0.09305461  0.07036584 ... -0.0350281  -0.16798325
  -0.05738237]]
lstm_1/lstm_cell_1/recurrent_kernel:0
(100, 400)
[[-0.11695729  0.01239485  0.1932041  ...  0.00097143 -0.18483984
   0.09812916]
 [-0.00036737 -0.04173807 -0.07086831 ...  0.0115425   0.10569195
  -0.07387895]
 [ 0.2308687  -0.00395754 -0.04271073 ... -0.15353443  0.0920559
   0.08410496]
 ...
 [ 0.02137986  0.15474087 -0.09073498 ... -0.02979837  0.06614699
  -0.04398156]
 [-0.10690519  0.11051621  0.05974921 ... -0.02698376 -0.172248
   0.08763158]
 [ 0.00230477 -0.04607404  0.00320123 ... -0.07448994 -0.09057475
  -0.01934751]]
lstm_1/lstm_cell_1/bias:0
(400,)
[-3.08251884e-02 -1.88831892e-02 -3.86159755e-02 -1.00986725e-02
 -3.47544486e-03  5.08669764e-03 -1.20282490e-02 -3.66889201e-02
 -1.41615663e-02 -1.04600107e-02 -4.79250588e-02 -8.33399873e-03
 -1.28764827e-02 -1.21521447e-02  3.22503550e-03 -1.83048546e-02
 -1.83854625e-02 -6.08728565e-02 -1.64185802e-03 -1.86676830e-02
 -4.25331015e-03 -5.59978262e-02  2.90389708e-03 -1.99151877e-02
  1.34478472e-02 -2.75393445e-02 -2.60633156e-02 -2.47872844e-02
 -1.26471715e-02 -3.62525210e-02 -2.33059321e-02 -1.02905296e-02
  8.91960692e-03 -1.93594936e-02 -1.61101688e-02 -4.05026302e-02
 -1.91472396e-02  8.80554225e-03 -3.13611999e-02 -2.74210032e-02
 -2.22085919e-02 -1.83760338e-02 -5.31681441e-03  5.64413285e-03
 -3.77222896e-02 -3.18879485e-02 -1.63568615e-03 -7.92593602e-03
 -3.22171859e-02 -1.78748388e-02 -3.01933698e-02 -1.42707285e-02
 -6.66266754e-02 -2.70331930e-02 -3.03179268e-02  2.53408477e-02
 -6.44962192e-02  3.80990386e-04 -1.24843698e-02 -3.50602567e-02
 -4.92653064e-03  9.42486525e-03 -9.31174681e-03 -1.68092623e-02
 -1.56618170e-02 -1.62359476e-02 -1.57487690e-02  4.33970103e-03
  2.66615232e-03 -1.15250228e-02  6.23400556e-03 -2.96460502e-02
 -3.54899168e-02 -4.31906991e-03  2.86134426e-02 -2.99287271e-02
 -1.05657745e-02 -2.34100819e-02 -4.77296859e-03 -2.97046099e-02
 -1.94558166e-02  1.51317976e-02 -5.64955547e-03  1.86550070e-03
 -1.92840975e-02 -1.67348869e-02 -3.43558639e-02  1.06858052e-02
  5.23069967e-03 -3.42447497e-02 -2.27890280e-03 -2.25995313e-02
 -2.24649906e-02 -1.70464143e-02 -2.66767312e-02 -5.45224734e-03
  6.35344302e-03  6.24202145e-03 -6.51315879e-03 -1.82800032e-02
  9.41813052e-01  9.75730956e-01  9.40607667e-01  9.98318374e-01
  9.90522027e-01  1.00690162e+00  9.69210148e-01  9.34389114e-01
  9.93016303e-01  9.70465064e-01  9.51861978e-01  9.99680102e-01
  1.00346577e+00  9.90331829e-01  9.78481054e-01  9.90049899e-01
  9.81439888e-01  9.43696320e-01  9.20706451e-01  9.89653111e-01
  9.97858346e-01  9.32353973e-01  1.00471675e+00  9.85047221e-01
  9.58674192e-01  9.42681015e-01  9.77888525e-01  9.86119926e-01
  9.92068291e-01  9.75316644e-01  9.87912536e-01  9.21845555e-01
  1.01854968e+00  9.86821830e-01  9.95203137e-01  9.60895181e-01
  9.88489509e-01  9.75368202e-01  9.35925126e-01  9.25483465e-01
  9.54678118e-01  9.90563512e-01  1.00302112e+00  1.00044322e+00
  9.50841427e-01  9.76002753e-01  1.00766516e+00  9.92620766e-01
  9.83849406e-01  9.65441406e-01  9.80509281e-01  9.60971236e-01
  9.56600070e-01  9.65846956e-01  9.74027455e-01  9.85988855e-01
  9.26105201e-01  1.00247478e+00  9.97509360e-01  9.57467735e-01
  1.00102437e+00  9.80903506e-01  1.00023222e+00  9.20250356e-01
  9.90005851e-01  9.78542089e-01  9.96929109e-01  9.97980416e-01
  1.00459743e+00  9.95267212e-01  1.00571108e+00  9.88757014e-01
  9.71533775e-01  1.00618136e+00  1.02767920e+00  9.70316470e-01
  9.99778271e-01  9.85503912e-01  1.00315046e+00  9.90446270e-01
  9.76071358e-01  1.02178133e+00  1.00173485e+00  1.01308882e+00
  9.58458304e-01  9.94343698e-01  9.62956727e-01  9.34479058e-01
  9.21857119e-01  9.83316600e-01  1.01479602e+00  9.30838227e-01
  9.76892233e-01  9.90736008e-01  9.78922606e-01  1.00479591e+00
  9.99234319e-01  9.85151529e-01  9.63079453e-01  9.87823427e-01
 -3.12271831e-03  1.48388417e-02  5.30860247e-03 -2.57056374e-02
 -2.93119401e-02  3.21652144e-02 -1.86277032e-02 -3.99517156e-02
 -3.26606855e-02 -1.00322282e-02 -4.10522707e-02  3.03859934e-02
  3.73528786e-02 -2.81332862e-02  2.35897154e-02 -2.60883681e-02
  3.13628316e-02 -2.80907601e-02  5.97583549e-03 -3.18820029e-02
  3.72083932e-02 -2.02545077e-02 -4.11197841e-02  3.67813967e-02
 -6.39585662e-04  2.07705460e-02  2.67587826e-02 -2.84688659e-02
  2.80540399e-02  2.66933013e-02 -3.16640176e-02  5.52663952e-03
  4.14184593e-02  2.96593644e-02  3.32832150e-02  1.94421224e-02
 -3.31961513e-02  2.50040228e-03  1.55754173e-02  2.80742198e-02
  2.77654156e-02  2.42938474e-02 -3.60755399e-02  2.12130174e-02
 -4.34708968e-02 -3.02465968e-02  3.39767039e-02  2.21778750e-02
  2.38092300e-02 -3.77995633e-02  2.40671132e-02  3.44132148e-02
 -2.40550768e-02  2.27114186e-02  2.33250391e-02 -2.29119323e-02
 -2.79674921e-02  2.34626848e-02  4.28518309e-04  2.51227245e-02
  2.36232765e-02 -2.04699710e-02 -3.02118286e-02 -1.22941658e-02
 -3.16972770e-02  2.27046628e-02 -3.70943658e-02 -3.07163484e-02
 -3.55576016e-02 -2.89743766e-02  3.89285013e-02 -3.07259969e-02
 -3.39494087e-02  3.41630690e-02  5.17341010e-02  2.09582373e-02
 -2.89772060e-02  3.03651169e-02 -4.02671695e-02  3.48435938e-02
  2.86060274e-02 -4.28039469e-02  4.40519378e-02  4.26165350e-02
 -8.99939053e-03 -3.40408646e-02 -2.44066864e-02 -1.24425832e-02
  2.02327352e-02  2.78102141e-02  2.21772734e-02  2.55060755e-02
  4.01810519e-02 -2.26932690e-02 -3.19690108e-02 -3.44142914e-02
  3.05021852e-02  1.68879107e-02  1.34628313e-02  3.64564136e-02
 -5.28548472e-02 -2.18495019e-02 -4.74903025e-02 -1.24797737e-02
 -5.26024168e-03  9.43135004e-04 -1.68552566e-02 -4.37852480e-02
 -1.62915830e-02 -1.74534302e-02 -5.65624088e-02 -1.00663342e-02
 -1.51091730e-02 -1.50725394e-02 -1.33239506e-02 -1.87732261e-02
 -2.09363382e-02 -6.64120689e-02 -4.83126752e-03 -1.88125148e-02
 -8.45827162e-03 -6.49694130e-02 -4.39242320e-03 -2.26166919e-02
 -6.15829322e-03 -2.93957144e-02 -2.67613083e-02 -2.77145226e-02
 -1.54977366e-02 -3.71751525e-02 -2.57414225e-02 -1.38477096e-02
  2.07257457e-03 -2.15511620e-02 -1.72066577e-02 -3.94556485e-02
 -2.06809361e-02  5.74214431e-03 -3.04109752e-02 -2.61845086e-02
 -3.84770148e-02 -1.92725919e-02 -6.09590393e-03  1.05957659e-02
 -4.07437012e-02 -3.50368358e-02 -3.37881083e-03 -8.03656597e-03
 -3.61232162e-02 -2.54666172e-02 -3.27662677e-02 -1.64239127e-02
 -6.26765117e-02 -2.90672630e-02 -3.09561398e-02  1.01068849e-02
 -6.34706914e-02 -2.38695974e-03 -1.44435745e-02 -3.70243341e-02
 -1.13253035e-02  1.64207201e-02 -1.05870543e-02 -2.36858968e-02
 -1.92701798e-02 -2.00890303e-02 -1.84678938e-02 -2.90867453e-03
 -1.19493564e-03 -1.66633669e-02  1.49214547e-03 -3.00484467e-02
 -3.26570719e-02 -7.48109957e-03  1.65847521e-02 -3.90144028e-02
 -1.28173549e-02 -2.49448717e-02 -7.45581044e-03 -3.09099872e-02
 -2.23329943e-02  1.00989426e-02 -1.11554600e-02 -1.81754341e-03
 -3.27601694e-02 -1.82520617e-02 -3.48509811e-02 -8.44065286e-03
 -2.80080363e-03 -3.71343568e-02 -4.55026655e-03 -2.41217036e-02
 -2.14825124e-02 -2.09311526e-02 -2.69804504e-02 -6.37970772e-03
  5.92142530e-03 -5.38062397e-03 -2.17119306e-02 -1.90768614e-02]
dense/kernel:0
(100, 1)
[[-0.16953757]
 [ 0.1094958 ]
 [-0.15867516]
 [-0.04106158]
 [-0.11787642]
 [ 0.01758602]
 [-0.1352543 ]
 [-0.22746433]
 [-0.09847774]
 [-0.12292866]
 [-0.14969723]
 [ 0.04980637]
 [ 0.11618117]
 [-0.10795396]
 [-0.05799834]
 [-0.13245697]
 [ 0.15612972]
 [-0.1821286 ]
 [-0.1530487 ]
 [-0.19951178]
 [ 0.18170618]
 [-0.14827548]
 [-0.1820659 ]
 [ 0.17541182]
 [ 0.02299442]
 [ 0.19074427]
 [ 0.18579613]
 [-0.14714828]
 [ 0.179635  ]
 [ 0.16268371]
 [-0.17861964]
 [ 0.13566436]
 [ 0.06433332]
 [ 0.166488  ]
 [ 0.18883158]
 [ 0.10839733]
 [-0.16017203]
 [ 0.05530944]
 [ 0.15171327]
 [ 0.21923329]
 [ 0.11711227]
 [ 0.18372618]
 [-0.19282797]
 [-0.02572956]
 [-0.20141889]
 [-0.20139769]
 [ 0.07867035]
 [ 0.00738125]
 [ 0.09113356]
 [-0.1589307 ]
 [ 0.1542309 ]
 [ 0.11434045]
 [-0.16179317]
 [ 0.13013871]
 [ 0.17524958]
 [-0.10568383]
 [-0.1914601 ]
 [-0.0064772 ]
 [ 0.02435223]
 [ 0.18976383]
 [ 0.04561705]
 [ 0.01976994]
 [-0.05054923]
 [-0.13518627]
 [-0.15188509]
 [ 0.17380725]
 [-0.1044388 ]
 [-0.20706652]
 [-0.02339196]
 [-0.13130611]
 [ 0.14842285]
 [-0.17201497]
 [-0.20891185]
 [ 0.1319917 ]
 [ 0.06782998]
 [ 0.18977496]
 [-0.11117258]
 [ 0.22602761]
 [-0.08588827]
 [ 0.17443635]
 [ 0.09559316]
 [-0.11008608]
 [ 0.11190336]
 [ 0.10503154]
 [-0.13726622]
 [-0.19570461]
 [-0.17966475]
 [-0.06807823]
 [-0.12863116]
 [ 0.17112707]
 [-0.02379481]
 [ 0.19806184]
 [ 0.1919559 ]
 [-0.18124513]
 [-0.22078997]
 [-0.05956164]
 [ 0.05101993]
 [-0.04355059]
 [-0.06653275]
 [ 0.16231264]]
dense/bias:0
(1,)
[0.09316989]
